<?xml version="1.0"?>
<opencv_storage>
<stage5>
  <maxWeakCount>6</maxWeakCount>
  <stageThreshold>-1.1490912437438965e+00</stageThreshold>
  <weakClassifiers>
    <_>
      <internalNodes>
        0 -1 67740 -2.8941165655851364e-02</internalNodes>
      <leafValues>
        5.3846156597137451e-01 -8.5948479175567627e-01</leafValues></_>
    <_>
      <internalNodes>
        0 -1 111504 2.2886533290147781e-02</internalNodes>
      <leafValues>
        -5.8655703067779541e-01 6.1414039134979248e-01</leafValues></_>
    <_>
      <internalNodes>
        0 -1 111880 -2.6579711586236954e-02</internalNodes>
      <leafValues>
        7.6321923732757568e-01 -3.8146737217903137e-01</leafValues></_>
    <_>
      <internalNodes>
        0 -1 63264 -2.7535349130630493e-02</internalNodes>
      <leafValues>
        7.3197054862976074e-01 -3.6410731077194214e-01</leafValues></_>
    <_>
      <internalNodes>
        0 -1 103854 -3.1023237388581038e-03</internalNodes>
      <leafValues>
        3.7675854563713074e-01 -7.1558010578155518e-01</leafValues></_>
    <_>
      <internalNodes>
        0 -1 146491 -2.3939553648233414e-02</internalNodes>
      <leafValues>
        6.6576671600341797e-01 -3.6792418360710144e-01</leafValues></_></weakClassifiers></stage5>
</opencv_storage>
